{
 "w": {
 "TP63": 0.01937,
"POLD2": -0.0086013,
"HIST3H2A": -0.029307,
"NEIL3": -0.012012,
"UBA7": 0.036107,
"PLAGL1": 0.039578,
"SOX4": -0.040014,
"SPATA22": 0.0050445,
"NSMCE1": -0.013267 
},
"b": -0.011834,
"name": "Models/Prostate.to.prostate_adenocarcinoma.Genome_instability.signature",
"numberOfGenes": 9,
"hallmark": "Genome_instability",
"tissue": "Prostate",
"cancer": "prostate_adenocarcinoma",
"reference": {
 "samples": [ "GTEX-OOBJ-2026-SM-3NB1R", "GTEX-13FHO-2826-SM-5K7ZA", "GTEX-13O21-1126-SM-5N9EV", "GTEX-U3ZH-0926-SM-4DXU4", "GTEX-WOFM-0326-SM-4OOSL", "GTEX-13G51-2326-SM-5LZXV", "GTEX-145LV-1226-SM-5S2QH", "GTEX-UTHO-2726-SM-4JBH9", "GTEX-QV44-1526-SM-4R1KI", "GTEX-14ABY-0726-SM-5Q5DF", "GTEX-WFON-1626-SM-4LVMV", "GTEX-RWSA-2026-SM-47JX8", "GTEX-RM2N-1126-SM-48FCY", "GTEX-111YS-1726-SM-5GIED", "GTEX-11DYG-2526-SM-5N9BB", "GTEX-13OW8-0426-SM-5J2NR", "GTEX-13111-1326-SM-5GCNO", "GTEX-WY7C-2026-SM-4ONCM", "GTEX-PLZ6-1126-SM-3P5ZR", "GTEX-QLQ7-1326-SM-4R1JY", "GTEX-11P82-1126-SM-5BC5K", "GTEX-WFG8-1826-SM-4LVM4", "GTEX-XMK1-1026-SM-4B65H", "GTEX-13RTJ-2126-SM-5S2PZ", "GTEX-11OF3-1726-SM-5GU5Q", "GTEX-Y9LG-1826-SM-4VBQC", "GTEX-T5JC-1226-SM-4DM7C", "GTEX-132QS-1126-SM-5P9GC", "GTEX-1399R-0526-SM-5IJEF", "GTEX-U412-2026-SM-4DXSI", "GTEX-117YW-1426-SM-5EGGO", "GTEX-S4Q7-1026-SM-4AD75", "GTEX-11NSD-0826-SM-5986S", "GTEX-131XF-1926-SM-5DUW4", "GTEX-ZT9W-1626-SM-4YCDQ", "GTEX-14BMV-2326-SM-5RQJ4", "GTEX-12ZZZ-2026-SM-5LZWJ", "GTEX-QMRM-1426-SM-4R1K8", "GTEX-11P7K-0626-SM-5985Z", "GTEX-QEG4-2226-SM-4R1JM", "GTEX-U4B1-1426-SM-4DXTX", "GTEX-T8EM-1826-SM-4DM7F", "GTEX-ZDYS-1226-SM-5IJF3", "GTEX-117YX-1526-SM-5H12T", "GTEX-U3ZM-0926-SM-4DXSW", "GTEX-139T6-1526-SM-5P9G6", "GTEX-S95S-1026-SM-4B64M", "GTEX-WFG7-1826-SM-3GIL1", "GTEX-SJXC-2026-SM-4DM6N", "GTEX-Q2AI-1126-SM-48U19", "GTEX-XQ3S-2526-SM-4BOOG", "GTEX-13O61-1726-SM-5KM46", "GTEX-11ZUS-2126-SM-5N9E6", "GTEX-NPJ8-2426-SM-3MJHL", "GTEX-XGQ4-1826-SM-4AT6F", "GTEX-YB5E-1826-SM-5IFI4", "GTEX-146FQ-1726-SM-5QGPX", "GTEX-13FTW-1226-SM-5LZZ1", "GTEX-13N2G-1826-SM-5KM1I", "GTEX-ZY6K-1526-SM-5GZXE", "GTEX-XOTO-2826-SM-4B65I", "GTEX-QV31-1026-SM-4R1K3", "GTEX-ZLFU-1726-SM-4WWBU", "GTEX-YF7O-1926-SM-4W1YQ", "GTEX-SNOS-1026-SM-4DM4Y", "GTEX-111CU-1526-SM-5N9FS", "GTEX-1399T-1226-SM-5P9J5", "GTEX-11O72-2726-SM-5HL6K", "GTEX-YJ8A-1126-SM-5IFJU", "GTEX-X5EB-1826-SM-4E3K8", "GTEX-11EQ9-1726-SM-5HL6U", "GTEX-WH7G-1726-SM-4LVKY", "GTEX-14C5O-2826-SM-5RQI6", "GTEX-12C56-1326-SM-5FQSV", "GTEX-REY6-2126-SM-48FD9", "GTEX-P4QS-2026-SM-3NMCG", "GTEX-OIZH-2026-SM-3NB1M", "GTEX-SNMC-0926-SM-4DM5U", "GTEX-11DXZ-1826-SM-5H12Y", "GTEX-ZTX8-1026-SM-5EGHD", "GTEX-SUCS-1126-SM-4DM61", "GTEX-WYJK-0626-SM-4ONCZ", "GTEX-111FC-2026-SM-5GZYO", "GTEX-VJYA-1226-SM-3GIJ6", "GTEX-OOBK-2025-SM-3LK5S", "GTEX-1477Z-2226-SM-5QGPG", "GTEX-132NY-2826-SM-5P9G2", "TCGA-EJ-A46H-01", "GTEX-S33H-1826-SM-4AD65", "GTEX-V955-1826-SM-4JBIL", "GTEX-V1D1-1926-SM-4JBGX", "GTEX-XPVG-2026-SM-4B65E", "TCGA-EJ-A46E-01", "GTEX-NFK9-2226-SM-3MJGP", "GTEX-U8XE-2526-SM-4E3IT", "TCGA-HC-7211-11", "GTEX-13FXS-2826-SM-5LZYC", "TCGA-HC-7740-01", "TCGA-HC-7738-11", "GTEX-S3XE-1326-SM-4AD4H", "TCGA-HC-8262-11", "GTEX-11TUW-2126-SM-5GU7B", "TCGA-HC-7747-11", "TCGA-EJ-7321-11", "TCGA-EJ-A8FO-11", "TCGA-CH-5767-11", "GTEX-144GM-0826-SM-5O98R", "TCGA-J4-A83J-11", "TCGA-EJ-7793-11", "GTEX-ZUA1-2826-SM-59HLE", "TCGA-XK-AAJU-01", "TCGA-HC-8258-11", "TCGA-HC-7079-01", "GTEX-YFCO-1626-SM-4W1Z3", "TCGA-EJ-7794-11", "TCGA-HC-7745-11", "TCGA-HC-7737-11", "TCGA-FC-A66V-01", "TCGA-HC-7740-11", "TCGA-XJ-A9DK-01", "TCGA-CH-5743-01", "TCGA-HC-8260-11", "TCGA-HC-8258-01", "TCGA-G9-6356-11", "TCGA-EJ-A7NK-01", "GTEX-ZYFD-2526-SM-5E45L", "TCGA-EJ-7784-11", "TCGA-KC-A4BL-01", "TCGA-G9-6365-11", "TCGA-M7-A720-01", "TCGA-EJ-7330-11", "TCGA-EJ-7781-11", "TCGA-EJ-5503-01", "TCGA-EJ-7328-11", "TCGA-EJ-A8FP-01", "TCGA-EJ-7789-11", "TCGA-EJ-7786-11", "TCGA-EJ-7315-11", "TCGA-EJ-7792-11", "TCGA-HC-8259-11", "TCGA-YL-A8SK-01", "TCGA-EJ-7783-11", "TCGA-H9-A6BX-01", "TCGA-G9-6384-11", "TCGA-G9-6333-11", "TCGA-XJ-A9DI-01", "TCGA-CH-5761-11", "TCGA-G9-6348-11", "TCGA-EJ-7314-11", "TCGA-EJ-A7NJ-01", "TCGA-G9-6370-01", "TCGA-FC-A8O0-01", "TCGA-J4-AATV-01", "TCGA-EJ-7797-11", "TCGA-EJ-7782-11", "TCGA-EJ-7785-11", "TCGA-M7-A71Y-01", "TCGA-YL-A9WX-01", "TCGA-CH-5789-01", "TCGA-EJ-A8FU-01", "TCGA-HC-7819-11", "TCGA-G9-6367-01", "TCGA-EJ-7331-11", "TCGA-HC-8260-01", "TCGA-EJ-A7NG-01", "TCGA-VN-A88I-01", "TCGA-G9-6351-11", "TCGA-EJ-AB20-01", "TCGA-KK-A7B2-01", "TCGA-HC-7742-11", "TCGA-EJ-7123-11", "TCGA-G9-6496-11", "TCGA-EJ-5515-01", "TCGA-EJ-7115-11", "TCGA-V1-A8MJ-01", "TCGA-EJ-5506-01", "TCGA-EJ-7317-11", "TCGA-KC-A4BR-01", "TCGA-VP-A879-01", "TCGA-HC-8261-01", "TCGA-EJ-7125-11", "TCGA-HC-7752-11", "TCGA-ZG-A9L6-01", "TCGA-KK-A8IC-01", "TCGA-EJ-A46B-01", "TCGA-X4-A8KS-01", "TCGA-CH-5763-01", "TCGA-HI-7170-01", "TCGA-J4-A6G1-01", "TCGA-YL-A8HO-01", "TCGA-V1-A8WN-01", "TCGA-EJ-A8FO-01", "TCGA-G9-7523-01", "TCGA-EJ-AB27-01", "TCGA-V1-A8MK-01", "TCGA-KK-A7AV-01", "TCGA-EJ-A46I-01", "TCGA-2A-A8VL-01", "TCGA-KK-A8I7-01", "TCGA-HC-7745-01", "TCGA-G9-6385-01", "TCGA-HC-8266-01", "TCGA-KC-A7FE-01", "TCGA-ZG-A9MC-01", "TCGA-FC-7708-01", "TCGA-V1-A8MU-01", "TCGA-VP-A87E-01", "TCGA-V1-A8MF-01", "TCGA-VP-A878-01", "TCGA-G9-6353-01", "TCGA-EJ-5502-01", "TCGA-J4-A6G3-01", "TCGA-M7-A723-01", "TCGA-YL-A8HJ-01", "TCGA-YL-A9WJ-01", "TCGA-EJ-7785-01", "TCGA-ZG-A9LU-01", "TCGA-G9-6342-11", "TCGA-HC-7737-01", "TCGA-CH-5771-01", "TCGA-HC-7817-01", "TCGA-HC-A9TE-01", "TCGA-TP-A8TT-01", "TCGA-EJ-A6RA-01", "TCGA-HC-8265-01", "TCGA-CH-5768-11", "TCGA-EJ-7330-01", "TCGA-XK-AAIR-01", "TCGA-KK-A8IL-01", "TCGA-VP-A87C-01", "TCGA-V1-A9OL-01", "TCGA-EJ-5516-01", "TCGA-EJ-7327-11", "TCGA-HC-7209-01", "TCGA-EJ-A46D-01", "TCGA-XJ-A9DQ-01", "TCGA-EJ-8470-01", "TCGA-EJ-5498-01", "TCGA-CH-5792-01", "TCGA-EJ-5497-01", "TCGA-EJ-7328-01", "TCGA-V1-A9ZK-01", "TCGA-EJ-A7NN-01", "TCGA-EJ-7792-01", "TCGA-XK-AAJT-01", "TCGA-G9-6384-01", "TCGA-VP-A872-01", "TCGA-QU-A6IM-01", "TCGA-EJ-7791-01", "TCGA-V1-A8WL-01", "TCGA-ZG-A9LN-01", "TCGA-EJ-A6RC-01", "TCGA-V1-A8WV-01", "TCGA-EJ-5526-01", "TCGA-YL-A8S8-01", "TCGA-HC-A6HX-01", "TCGA-ZG-A9L0-01", "TCGA-V1-A9OX-01", "TCGA-V1-A9ZR-01", "TCGA-V1-A9Z8-01", "TCGA-G9-6348-01", "TCGA-EJ-8468-01", "TCGA-V1-A9OA-01", "TCGA-G9-6336-01", "TCGA-CH-5746-01", "TCGA-YL-A9WY-01", "TCGA-HC-7736-01", "TCGA-V1-A9O7-01", "TCGA-G9-6379-01", "TCGA-HC-A8D0-01", "TCGA-V1-A8MG-01", "TCGA-HC-8264-01", "TCGA-QU-A6IO-01", "TCGA-EJ-7794-01", "TCGA-YL-A8SB-01", "TCGA-TK-A8OK-01", "TCGA-YL-A8SR-01", "TCGA-J4-A67L-01", "TCGA-ZG-A9LY-01", "TCGA-ZG-A9LS-01", "TCGA-HC-7818-01", "TCGA-HC-A8D1-01", "TCGA-XK-AAJR-01", "TCGA-EJ-7797-01", "TCGA-EJ-5508-01", "TCGA-2A-A8W3-01", "TCGA-EJ-A7NH-01", "TCGA-SU-A7E7-01", "TCGA-CH-5766-01", "TCGA-EJ-5531-01", "TCGA-J4-A67O-01", "TCGA-V1-A9O9-01", "TCGA-ZG-A8QZ-01", "TCGA-KC-A7F6-01", "TCGA-EJ-7793-01", "TCGA-G9-6347-01", "TCGA-KC-A4BN-01", "TCGA-EJ-7318-01", "TCGA-J4-A67Q-01", "TCGA-HC-A6AS-01", "TCGA-EJ-5510-01", "TCGA-XA-A8JR-01", "TCGA-EJ-5495-01", "TCGA-CH-5762-01", "TCGA-V1-A9O5-01", "TCGA-EJ-5524-01", "TCGA-J4-A67S-01", "TCGA-EJ-5509-01", "TCGA-EJ-7783-01", "TCGA-EJ-5527-01", "TCGA-EJ-7115-01", "TCGA-EJ-7331-01", "TCGA-HI-7169-01", "TCGA-HC-8216-01", "TCGA-G9-6339-01", "TCGA-G9-7522-01", "TCGA-VN-A88N-01", "TCGA-EJ-5532-01", "TCGA-XJ-A83H-01", "TCGA-V1-A9OY-01", "TCGA-4L-AA1F-01", "TCGA-KK-A8IH-01", "TCGA-CH-5738-01", "TCGA-ZG-A8QW-01", "TCGA-V1-A9ZG-01", "TCGA-J4-A67T-01", "TCGA-J4-8200-01", "TCGA-FC-7961-01", "TCGA-QU-A6IP-01", "TCGA-CH-5745-01", "TCGA-J9-A52C-01", "TCGA-J4-A83J-01", "TCGA-KK-A8I4-01", "TCGA-V1-A9Z9-01", "TCGA-ZG-A9LM-01", "TCGA-EJ-5518-01", "TCGA-KK-A8IM-01", "TCGA-M7-A721-01", "TCGA-J4-A83M-01", "TCGA-HC-8256-01", "TCGA-HC-7075-01", "TCGA-EJ-5514-01", "TCGA-HC-7233-01", "TCGA-G9-6351-01", "TCGA-X4-A8KQ-01", "TCGA-ZG-A9M4-01", "TCGA-J9-A8CK-01", "TCGA-HC-7748-01", "TCGA-YL-A8HK-01", "TCGA-EJ-5512-01", "TCGA-EJ-7786-01", "TCGA-EJ-A65E-01", "TCGA-HC-7211-01", "TCGA-J4-A67M-01", "TCGA-KK-A7B1-01", "TCGA-V1-A8X3-01", "TCGA-EJ-A8FS-01", "TCGA-G9-7510-01", "TCGA-EJ-5501-01", "TCGA-HC-7820-01", "TCGA-HC-A631-01", "TCGA-G9-6356-01", "TCGA-J4-A67R-01", "TCGA-Y6-A9XI-01", "TCGA-HC-7750-01", "TCGA-M7-A725-01", "TCGA-VP-A87J-01", "TCGA-VN-A88P-01", "TCGA-YL-A8SH-01", "TCGA-KK-A6E5-01", "TCGA-EJ-A65B-01", "TCGA-EJ-5522-01", "TCGA-XK-AAJP-01", "TCGA-J4-8198-01", "TCGA-G9-6378-01", "TCGA-KK-A7AQ-01", "TCGA-CH-5791-01", "TCGA-KK-A7B0-01", "TCGA-CH-5764-01", "TCGA-G9-6329-01", "TCGA-YL-A8SI-01", "TCGA-J4-A83K-01", "TCGA-CH-5788-01", "TCGA-ZG-A8QY-01", "TCGA-KC-A4BV-01", "TCGA-J9-A8CP-01", "TCGA-J4-AAU2-01", "TCGA-G9-6363-11", "TCGA-G9-6342-01", "TCGA-HC-A6AP-01", "TCGA-CH-5739-01", "TCGA-KK-A6E3-01", "TCGA-G9-7521-01", "TCGA-EJ-7314-01", "TCGA-2A-AAYF-01", "TCGA-EJ-5505-01", "TCGA-EJ-A8FN-01", "TCGA-G9-6499-11", "TCGA-EJ-A46G-01", "TCGA-HC-8262-01", "TCGA-J4-A83L-01", "TCGA-CH-5741-01", "TCGA-2A-A8VO-01", "TCGA-G9-A9S0-01", "TCGA-2A-A8VT-01", "TCGA-VN-A88L-01", "TCGA-HC-7742-01", "TCGA-G9-6498-01", "TCGA-CH-5751-01", "TCGA-EJ-5511-01", "TCGA-KK-A8I9-01", "TCGA-G9-7519-01", "TCGA-KK-A6DY-01", "TCGA-V1-A8WW-01", "TCGA-HC-A9TH-01", "TCGA-G9-7509-01", "TCGA-KC-A7FA-01", "TCGA-EJ-7781-01", "TCGA-HC-7080-01", "TCGA-J9-A8CL-01", "TCGA-KK-A8I5-01", "TCGA-V1-A8ML-01", "TCGA-YL-A8SC-01", "TCGA-XK-AAJA-01", "TCGA-YJ-A8SW-01", "TCGA-KK-A8IJ-01", "TCGA-Y6-A8TL-01", "TCGA-HC-7747-01", "TCGA-HC-7819-01", "TCGA-YL-A8SA-01", "TCGA-VP-A87H-01", "TCGA-KK-A8I6-01", "TCGA-G9-6494-01", "TCGA-CH-5748-01", "TCGA-EJ-A65G-01", "TCGA-J4-A67N-01", "TCGA-EJ-5496-01", "TCGA-HC-7210-01", "TCGA-CH-5750-01", "TCGA-HC-A6HY-01", "TCGA-G9-7525-01", "TCGA-KK-A8IK-01", "TCGA-VN-A88R-01", "TCGA-HC-7081-01", "TCGA-VN-A88M-01", "TCGA-EJ-7782-01", "TCGA-XK-AAIV-01", "TCGA-ZG-A9LZ-01", "TCGA-V1-A9OH-01", "TCGA-YL-A9WK-01", "TCGA-HC-7213-01", "TCGA-G9-6343-01", "TCGA-EJ-5542-01", "TCGA-XK-AAJ3-01", "TCGA-XQ-A8TB-01", "TCGA-G9-6366-01", "TCGA-EJ-5507-01", "TCGA-YL-A8SJ-01", "TCGA-HC-8259-01", "TCGA-CH-5754-01", "TCGA-ZG-A9N3-01", "TCGA-EJ-5519-01", "TCGA-EJ-A65M-01", "TCGA-HC-A6AQ-01", "TCGA-G9-6354-01", "TCGA-EJ-A65J-01", "TCGA-CH-5753-01", "TCGA-HC-8257-01", "TCGA-HC-7232-01", "TCGA-ZG-A8QX-01", "TCGA-KK-A8IG-01", "TCGA-KK-A8II-01", "TCGA-HC-7821-01", "TCGA-2A-AAYO-01", "TCGA-CH-5769-11", "TCGA-HC-7078-01", "TCGA-G9-6377-01", "TCGA-EJ-5517-01", "TCGA-EJ-7317-01", "TCGA-FC-A4JI-01", "TCGA-FC-A5OB-01", "TCGA-KK-A6E0-01", "TCGA-V1-A8MM-01", "TCGA-EJ-7327-01", "TCGA-HC-7231-01", "TCGA-XJ-A83G-01", "TCGA-EJ-5521-01", "TCGA-V1-A9OF-01", "TCGA-CH-5794-01", "TCGA-EJ-7218-01", "TCGA-HC-8213-01", "TCGA-CH-5769-01", "TCGA-EJ-A7NF-01", "TCGA-VP-AA1N-01", "TCGA-YL-A9WH-01", "TCGA-J4-AATZ-01", "TCGA-CH-5752-01", "TCGA-G9-6333-01", "TCGA-KK-A8IA-01", "TCGA-HC-A632-01", "TCGA-EJ-5504-01", "TCGA-WW-A8ZI-01", "TCGA-H9-7775-01", "TCGA-HC-A6AN-01", "TCGA-YL-A8SQ-01", "TCGA-KK-A6E6-01", "TCGA-J9-A52D-01", "TCGA-V1-A8WS-01", "TCGA-YL-A8SO-01", "TCGA-J4-A83I-01", "TCGA-CH-5761-01", "TCGA-G9-6338-01", "TCGA-G9-6373-01", "TCGA-HC-7738-01", "TCGA-EJ-5499-01", "TCGA-YL-A8HL-01", "TCGA-CH-5744-01", "TCGA-KC-A7F3-01", "TCGA-KK-A59Z-01", "TCGA-KK-A59V-01", "TCGA-TP-A8TV-01", "TCGA-VP-A87K-01", "TCGA-EJ-7125-01", "TCGA-CH-5740-01", "TCGA-KK-A7B4-01", "TCGA-EJ-7312-01", "TCGA-EJ-7321-01", "TCGA-KK-A7B3-01", "TCGA-CH-5790-01", "TCGA-EJ-7788-01", "TCGA-ZG-A9L2-01", "TCGA-VP-A87B-01", "TCGA-VP-A87D-01", "TCGA-KK-A6E7-01", "TCGA-ZG-A9NI-01", "TCGA-ZG-A9KY-01", "TCGA-EJ-A7NM-01", "TCGA-HC-A76W-01", "TCGA-2A-AAYU-01", "TCGA-KK-A8IB-01", "TCGA-EJ-7123-01", "TCGA-G9-6365-01", "TCGA-EJ-7325-01", "TCGA-2A-A8VV-01", "TCGA-G9-A9S7-01", "TCGA-V1-A9OT-01", "TCGA-EJ-5494-01", "TCGA-CH-5737-01", "TCGA-YL-A8HM-01", "TCGA-J9-A52E-01", "TCGA-EJ-5530-01", "TCGA-XK-AAK1-01", "TCGA-CH-5768-01", "TCGA-EJ-7315-01", "TCGA-ZG-A9L9-01", "TCGA-HC-7749-01", "TCGA-KK-A8I8-01", "TCGA-G9-6499-01", "TCGA-V1-A9ZI-01", "TCGA-MG-AAMC-01", "TCGA-HI-7168-01", "TCGA-V1-A9O5-06", "TCGA-J4-A83N-01", "TCGA-VN-A88Q-01", "TCGA-KK-A8IF-01", "TCGA-HC-7077-01", "TCGA-G9-6364-01", "TCGA-VN-A943-01", "TCGA-EJ-8472-01", "TCGA-J4-A6M7-01", "TCGA-VN-A88O-01", "TCGA-J4-A67K-01", "TCGA-EJ-8474-01", "TCGA-G9-6332-01", "TCGA-EJ-A65F-01", "TCGA-HC-7230-01", "TCGA-HC-A4ZV-01", "TCGA-KK-A8ID-01", "TCGA-EJ-7784-01", "TCGA-G9-6363-01", "TCGA-G9-6371-01", "TCGA-J9-A52B-01", "TCGA-J9-A8CM-01", "TCGA-YL-A9WI-01", "TCGA-HI-7171-01", "TCGA-XJ-A9DX-01", "TCGA-V1-A9Z7-01", "TCGA-2A-A8W1-01", "TCGA-ZG-A9ND-01", "TCGA-YL-A8SF-01", "TCGA-CH-5767-01", "TCGA-HC-A6AO-01", "TCGA-XQ-A8TA-01", "TCGA-G9-6496-01", "TCGA-G9-6369-01", "TCGA-KK-A59X-01", "TCGA-V1-A9OQ-01", "TCGA-ZG-A9LB-01", "TCGA-KK-A7AU-01", "TCGA-HC-7752-01", "TCGA-KK-A59Y-01", "TCGA-HC-A6AL-01", "TCGA-KK-A7AY-01", "TCGA-KK-A7AZ-01", "TCGA-VP-A875-01", "TCGA-HC-A8CY-01", "TCGA-KK-A6E2-01", "TCGA-QU-A6IN-01", "TCGA-EJ-7789-01", "TCGA-EJ-5525-01", "TCGA-HC-7744-01", "TCGA-QU-A6IL-01", "TCGA-CH-5772-01", "TCGA-G9-A9S4-01", "TCGA-M7-A722-01", "TCGA-HC-A76X-01", "TCGA-ZG-A9L5-01", "TCGA-HC-7212-01", "TCGA-KK-A5A1-01", "TCGA-FC-A6HD-01", "TCGA-G9-6361-01", "TCGA-KK-A7AW-01", "TCGA-XJ-A83F-01", "TCGA-KK-A6E1-01", "TCGA-YL-A9WL-01", "TCGA-M7-A724-01", "TCGA-KC-A7FD-01", "TCGA-VP-A876-01", "TCGA-KK-A6E8-01", "TCGA-HC-A48F-01", "TCGA-XK-AAIW-01", "TCGA-G9-6362-11", "TCGA-KK-A7AP-01", "TCGA-CH-5765-01", "TCGA-YL-A8S9-01", "TCGA-G9-6362-01", "TCGA-ZG-A9L1-01", "TCGA-M7-A71Z-01", "TCGA-2A-A8VX-01", "TCGA-VN-A88K-01", "TCGA-YL-A8SL-01", "TCGA-KK-A6E4-01", "TCGA-J9-A8CN-01", "TCGA-H9-A6BY-01", "TCGA-KC-A7F5-01", "TCGA-YL-A8SP-01", "TCGA-EJ-A46F-01", "TCGA-EJ-A65D-01" ],
"rawscore": [ -0.13837, -0.13562, -0.12183, -0.11865, -0.11481, -0.11479, -0.11377, -0.10944, -0.10483, -0.10454, -0.10278, -0.10265, -0.10236, -0.10082, -0.10027, -0.10013, -0.099885, -0.09978, -0.099066, -0.09774, -0.096965, -0.095657, -0.095201, -0.094194, -0.092052, -0.091861, -0.091551, -0.090338, -0.089865, -0.089253, -0.08876, -0.088171, -0.087203, -0.087053, -0.086633, -0.086189, -0.086075, -0.085907, -0.085842, -0.085679, -0.085242, -0.08518, -0.084961, -0.084595, -0.083965, -0.083676, -0.083137, -0.083095, -0.082835, -0.082238, -0.081424, -0.080874, -0.080251, -0.080219, -0.080046, -0.079791, -0.079781, -0.079144, -0.078184, -0.077046, -0.076365, -0.075297, -0.075111, -0.074875, -0.073336, -0.073257, -0.072491, -0.071696, -0.07151, -0.071045, -0.070801, -0.070593, -0.06875, -0.067619, -0.066915, -0.06668, -0.06663, -0.065307, -0.064572, -0.063211, -0.061981, -0.061853, -0.061629, -0.061181, -0.06041, -0.059653, -0.059589, -0.056999, -0.056374, -0.056005, -0.055445, -0.051053, -0.048696, -0.048693, -0.04745, -0.045906, -0.043206, -0.042982, -0.042839, -0.042771, -0.042708, -0.042399, -0.034888, -0.033228, -0.032063, -0.031699, -0.031389, -0.030703, -0.029811, -0.02955, -0.029436, -0.02789, -0.027482, -0.026472, -0.025932, -0.025443, -0.024865, -0.024612, -0.024382, -0.024239, -0.024122, -0.023938, -0.02383, -0.023777, -0.021998, -0.021967, -0.021331, -0.020362, -0.020036, -0.018602, -0.018458, -0.01841, -0.017104, -0.016932, -0.016289, -0.015856, -0.015322, -0.015224, -0.015182, -0.014821, -0.01414, -0.013833, -0.013585, -0.013427, -0.012501, -0.012129, -0.011927, -0.011542, -0.0099983, -0.0081239, -0.0079065, -0.0077012, -0.0076357, -0.0068263, -0.0061465, -0.0057247, -0.0057132, -0.0052047, -0.0049304, -0.0037361, -0.0034036, -0.0032607, -0.0023927, -0.00093178, 0.00067773, 0.00069119, 0.0012654, 0.0017949, 0.0020119, 0.0028238, 0.0028301, 0.0033859, 0.0037034, 0.0037901, 0.0064045, 0.0067606, 0.0070111, 0.0070329, 0.0074983, 0.0086025, 0.0096034, 0.0097603, 0.010248, 0.010573, 0.010671, 0.011524, 0.011607, 0.011789, 0.012024, 0.012714, 0.013308, 0.013333, 0.013396, 0.013684, 0.013941, 0.014007, 0.014026, 0.014309, 0.014791, 0.015011, 0.015576, 0.015847, 0.015897, 0.015908, 0.015945, 0.016125, 0.016131, 0.01636, 0.017518, 0.017518, 0.017565, 0.017716, 0.020085, 0.020478, 0.020758, 0.020788, 0.020845, 0.021068, 0.021188, 0.021344, 0.021362, 0.021401, 0.021403, 0.021479, 0.021487, 0.021605, 0.021762, 0.022137, 0.022488, 0.022542, 0.023063, 0.023678, 0.023825, 0.023841, 0.024261, 0.024361, 0.025252, 0.025556, 0.026533, 0.026992, 0.027128, 0.0282, 0.028339, 0.028357, 0.028367, 0.028466, 0.028533, 0.028536, 0.02875, 0.029228, 0.029371, 0.030035, 0.030282, 0.030416, 0.030732, 0.03097, 0.031263, 0.031357, 0.03158, 0.031648, 0.031736, 0.031931, 0.032542, 0.032834, 0.032963, 0.033057, 0.033364, 0.033374, 0.03357, 0.033696, 0.033707, 0.033986, 0.034305, 0.034957, 0.035205, 0.035234, 0.035389, 0.035775, 0.036132, 0.036173, 0.036658, 0.036901, 0.036963, 0.037507, 0.037665, 0.037934, 0.038067, 0.038593, 0.038717, 0.039075, 0.039475, 0.039761, 0.04034, 0.040414, 0.040486, 0.040519, 0.040724, 0.040792, 0.040859, 0.041098, 0.041323, 0.041524, 0.041538, 0.041733, 0.042106, 0.042272, 0.042484, 0.042537, 0.042652, 0.042671, 0.042813, 0.042984, 0.043047, 0.043455, 0.043478, 0.043685, 0.043687, 0.043736, 0.043773, 0.044647, 0.044745, 0.04486, 0.045359, 0.045382, 0.045401, 0.045465, 0.04557, 0.045586, 0.04561, 0.045799, 0.045806, 0.045839, 0.046036, 0.04616, 0.046181, 0.046727, 0.04705, 0.047098, 0.047135, 0.047167, 0.047438, 0.047777, 0.047833, 0.047968, 0.048036, 0.048377, 0.048378, 0.048424, 0.048427, 0.048433, 0.048868, 0.048998, 0.049014, 0.049341, 0.050007, 0.050167, 0.050507, 0.050682, 0.050773, 0.050806, 0.051034, 0.051151, 0.051232, 0.051357, 0.051367, 0.051586, 0.051655, 0.051821, 0.051835, 0.051893, 0.052209, 0.05297, 0.053085, 0.053247, 0.053387, 0.053618, 0.053839, 0.053994, 0.054017, 0.054136, 0.054267, 0.054697, 0.054776, 0.054807, 0.054912, 0.055249, 0.055396, 0.055471, 0.055753, 0.055773, 0.05586, 0.055864, 0.056224, 0.056263, 0.056423, 0.056432, 0.05647, 0.056494, 0.056583, 0.056659, 0.056753, 0.057073, 0.057646, 0.057673, 0.058128, 0.058163, 0.058187, 0.05821, 0.058503, 0.058641, 0.058675, 0.05897, 0.0593, 0.059727, 0.05979, 0.059883, 0.060163, 0.060568, 0.060607, 0.060628, 0.060804, 0.060954, 0.060996, 0.061005, 0.061017, 0.061037, 0.061075, 0.061213, 0.061316, 0.061367, 0.062006, 0.062022, 0.062217, 0.062334, 0.062376, 0.062505, 0.063155, 0.063251, 0.063308, 0.0637, 0.063718, 0.064027, 0.064085, 0.064119, 0.064154, 0.064205, 0.064433, 0.06484, 0.064861, 0.065093, 0.065492, 0.06552, 0.065565, 0.066091, 0.066135, 0.066561, 0.066706, 0.067575, 0.067875, 0.067982, 0.06799, 0.068017, 0.068288, 0.068342, 0.068494, 0.068529, 0.068581, 0.06862, 0.068834, 0.068902, 0.069528, 0.069548, 0.069575, 0.069768, 0.069851, 0.069981, 0.070108, 0.070301, 0.070665, 0.070682, 0.070834, 0.070964, 0.0711, 0.071438, 0.071474, 0.071688, 0.072024, 0.072237, 0.07229, 0.072342, 0.072637, 0.072719, 0.072855, 0.072885, 0.073138, 0.073612, 0.073738, 0.07375, 0.073767, 0.073824, 0.073922, 0.075024, 0.075177, 0.075384, 0.075427, 0.075682, 0.076168, 0.076202, 0.076294, 0.076344, 0.076378, 0.076777, 0.076977, 0.076992, 0.077155, 0.077721, 0.077734, 0.07794, 0.077941, 0.078121, 0.078195, 0.078294, 0.078348, 0.078459, 0.078525, 0.07872, 0.078839, 0.079148, 0.079229, 0.079393, 0.079462, 0.079484, 0.079728, 0.079785, 0.08018, 0.080309, 0.080677, 0.080704, 0.08089, 0.081632, 0.081694, 0.081713, 0.081834, 0.082025, 0.082296, 0.082315, 0.0828, 0.083026, 0.083028, 0.083191, 0.083209, 0.08328, 0.083552, 0.083614, 0.08384, 0.083843, 0.084004, 0.084361, 0.084426, 0.084554, 0.085068, 0.08575, 0.085825, 0.085829, 0.086146, 0.086604, 0.086684, 0.086943, 0.087139, 0.087251, 0.08729, 0.087293, 0.087375, 0.087654, 0.087729, 0.08776, 0.087763, 0.087943,  0.088, 0.088021, 0.088763, 0.088942, 0.089067, 0.08939, 0.089615, 0.090155, 0.090395, 0.090553, 0.091875, 0.092016, 0.092038, 0.092921, 0.093148, 0.09354, 0.094007, 0.094068, 0.094168, 0.094391, 0.094582, 0.094703, 0.094729, 0.094776, 0.095041, 0.096313, 0.096986, 0.097665, 0.097681, 0.097969, 0.098105, 0.098186, 0.099015, 0.09906, 0.099113, 0.099189, 0.099291, 0.099385, 0.099515, 0.099774, 0.099974, 0.1003,  0.104, 0.1043, 0.10438, 0.1044, 0.10579, 0.10601, 0.10667, 0.1067, 0.10684, 0.10819, 0.1107, 0.11138, 0.11177, 0.11194, 0.11235, 0.11251, 0.11251, 0.11386, 0.11761, 0.11779, 0.11828, 0.11985, 0.12017, 0.12054, 0.12172, 0.12201, 0.12927, 0.14901 ],
"labels": [ "TRUE", "TRUE", "TRUE", "TRUE", "TRUE", "TRUE", "TRUE", "TRUE", "TRUE", "TRUE", "TRUE", "TRUE", "TRUE", "TRUE", "TRUE", "TRUE", "TRUE", "TRUE", "TRUE", "TRUE", "TRUE", "TRUE", "TRUE", "TRUE", "TRUE", "TRUE", "TRUE", "TRUE", "TRUE", "TRUE", "TRUE", "TRUE", "TRUE", "TRUE", "TRUE", "TRUE", "TRUE", "TRUE", "TRUE", "TRUE", "TRUE", "TRUE", "TRUE", "TRUE", "TRUE", "TRUE", "TRUE", "TRUE", "TRUE", "TRUE", "TRUE", "TRUE", "TRUE", "TRUE", "TRUE", "TRUE", "TRUE", "TRUE", "TRUE", "TRUE", "TRUE", "TRUE", "TRUE", "TRUE", "TRUE", "TRUE", "TRUE", "TRUE", "TRUE", "TRUE", "TRUE", "TRUE", "TRUE", "TRUE", "TRUE", "TRUE", "TRUE", "TRUE", "TRUE", "TRUE", "TRUE", "TRUE", "TRUE", "TRUE", "TRUE", "TRUE", "TRUE", "FALSE", "TRUE", "TRUE", "TRUE", "TRUE", "FALSE", "TRUE", "TRUE", "TRUE", "TRUE", "FALSE", "TRUE", "TRUE", "TRUE", "TRUE", "TRUE", "TRUE", "TRUE", "TRUE", "TRUE", "TRUE", "TRUE", "TRUE", "FALSE", "TRUE", "FALSE", "TRUE", "TRUE", "TRUE", "TRUE", "FALSE", "TRUE", "FALSE", "FALSE", "TRUE", "FALSE", "TRUE", "FALSE", "TRUE", "TRUE", "FALSE", "TRUE", "FALSE", "TRUE", "TRUE", "FALSE", "TRUE", "FALSE", "TRUE", "TRUE", "TRUE", "TRUE", "TRUE", "FALSE", "TRUE", "FALSE", "TRUE", "TRUE", "FALSE", "TRUE", "TRUE", "TRUE", "FALSE", "FALSE", "FALSE", "FALSE", "TRUE", "TRUE", "TRUE", "FALSE", "FALSE", "FALSE", "FALSE", "TRUE", "FALSE", "TRUE", "FALSE", "FALSE", "FALSE", "TRUE", "FALSE", "FALSE", "TRUE", "TRUE", "TRUE", "FALSE", "TRUE", "FALSE", "FALSE", "TRUE", "FALSE", "FALSE", "FALSE", "TRUE", "TRUE", "FALSE", "FALSE", "FALSE", "FALSE", "FALSE", "FALSE", "FALSE", "FALSE", "FALSE", "FALSE", "FALSE", "FALSE", "FALSE", "FALSE", "FALSE", "FALSE", "FALSE", "FALSE", "FALSE", "FALSE", "FALSE", "FALSE", "FALSE", "FALSE", "FALSE", "FALSE", "FALSE", "FALSE", "FALSE", "FALSE", "FALSE", "FALSE", "FALSE", "FALSE", "FALSE", "TRUE", "FALSE", "FALSE", "FALSE", "FALSE", "FALSE", "FALSE", "FALSE", "TRUE", "FALSE", "FALSE", "FALSE", "FALSE", "FALSE", "FALSE", "TRUE", "FALSE", "FALSE", "FALSE", "FALSE", "FALSE", "FALSE", "FALSE", "FALSE", "FALSE", "FALSE", "FALSE", "FALSE", "FALSE", "FALSE", "FALSE", "FALSE", "FALSE", "FALSE", "FALSE", "FALSE", "FALSE", "FALSE", "FALSE", "FALSE", "FALSE", "FALSE", "FALSE", "FALSE", "FALSE", "FALSE", "FALSE", "FALSE", "FALSE", "FALSE", "FALSE", "FALSE", "FALSE", "FALSE", "FALSE", "FALSE", "FALSE", "FALSE", "FALSE", "FALSE", "FALSE", "FALSE", "FALSE", "FALSE", "FALSE", "FALSE", "FALSE", "FALSE", "FALSE", "FALSE", "FALSE", "FALSE", "FALSE", "FALSE", "FALSE", "FALSE", "FALSE", "FALSE", "FALSE", "FALSE", "FALSE", "FALSE", "FALSE", "FALSE", "FALSE", "FALSE", "FALSE", "FALSE", "FALSE", "FALSE", "FALSE", "FALSE", "FALSE", "FALSE", "FALSE", "FALSE", "FALSE", "FALSE", "FALSE", "FALSE", "FALSE", "FALSE", "FALSE", "FALSE", "FALSE", "FALSE", "FALSE", "FALSE", "FALSE", "FALSE", "FALSE", "FALSE", "FALSE", "FALSE", "FALSE", "FALSE", "FALSE", "FALSE", "FALSE", "FALSE", "FALSE", "FALSE", "FALSE", "FALSE", "FALSE", "FALSE", "FALSE", "FALSE", "FALSE", "FALSE", "FALSE", "FALSE", "FALSE", "FALSE", "FALSE", "FALSE", "FALSE", "FALSE", "FALSE", "FALSE", "FALSE", "FALSE", "FALSE", "FALSE", "FALSE", "FALSE", "FALSE", "FALSE", "FALSE", "FALSE", "FALSE", "FALSE", "FALSE", "FALSE", "FALSE", "FALSE", "FALSE", "FALSE", "FALSE", "FALSE", "FALSE", "FALSE", "FALSE", "FALSE", "FALSE", "FALSE", "FALSE", "FALSE", "FALSE", "FALSE", "TRUE", "FALSE", "FALSE", "FALSE", "FALSE", "FALSE", "FALSE", "FALSE", "FALSE", "FALSE", "TRUE", "FALSE", "FALSE", "FALSE", "FALSE", "FALSE", "FALSE", "FALSE", "FALSE", "FALSE", "FALSE", "FALSE", "FALSE", "FALSE", "FALSE", "FALSE", "FALSE", "FALSE", "FALSE", "FALSE", "FALSE", "FALSE", "FALSE", "FALSE", "FALSE", "FALSE", "FALSE", "FALSE", "FALSE", "FALSE", "FALSE", "FALSE", "FALSE", "FALSE", "FALSE", "FALSE", "FALSE", "FALSE", "FALSE", "FALSE", "FALSE", "FALSE", "FALSE", "FALSE", "FALSE", "FALSE", "FALSE", "FALSE", "FALSE", "FALSE", "FALSE", "FALSE", "FALSE", "FALSE", "FALSE", "FALSE", "FALSE", "FALSE", "FALSE", "FALSE", "FALSE", "FALSE", "FALSE", "FALSE", "FALSE", "FALSE", "FALSE", "FALSE", "FALSE", "FALSE", "FALSE", "FALSE", "FALSE", "FALSE", "FALSE", "FALSE", "FALSE", "TRUE", "FALSE", "FALSE", "FALSE", "FALSE", "FALSE", "FALSE", "FALSE", "FALSE", "FALSE", "FALSE", "FALSE", "FALSE", "FALSE", "FALSE", "FALSE", "FALSE", "FALSE", "FALSE", "FALSE", "FALSE", "FALSE", "FALSE", "FALSE", "FALSE", "FALSE", "FALSE", "FALSE", "FALSE", "FALSE", "FALSE", "FALSE", "FALSE", "FALSE", "FALSE", "FALSE", "FALSE", "FALSE", "FALSE", "FALSE", "FALSE", "FALSE", "FALSE", "FALSE", "FALSE", "FALSE", "FALSE", "FALSE", "FALSE", "FALSE", "FALSE", "FALSE", "FALSE", "FALSE", "FALSE", "FALSE", "FALSE", "FALSE", "FALSE", "FALSE", "FALSE", "FALSE", "FALSE", "FALSE", "FALSE", "FALSE", "FALSE", "FALSE", "FALSE", "FALSE", "FALSE", "FALSE", "FALSE", "FALSE", "FALSE", "FALSE", "FALSE", "FALSE", "FALSE", "FALSE", "FALSE", "FALSE", "FALSE", "FALSE", "FALSE", "FALSE", "FALSE", "FALSE", "FALSE", "FALSE", "FALSE", "FALSE", "FALSE", "FALSE", "FALSE", "FALSE", "FALSE", "FALSE", "FALSE", "FALSE", "FALSE", "FALSE", "FALSE", "FALSE", "FALSE", "FALSE", "FALSE", "FALSE", "FALSE", "FALSE", "FALSE", "FALSE", "FALSE", "FALSE", "FALSE", "FALSE", "FALSE", "FALSE", "FALSE", "FALSE", "FALSE", "FALSE", "FALSE", "FALSE", "FALSE", "FALSE", "FALSE", "FALSE", "FALSE", "FALSE", "FALSE", "FALSE", "FALSE", "FALSE", "FALSE", "FALSE", "FALSE", "FALSE", "FALSE", "FALSE", "FALSE", "FALSE", "FALSE", "FALSE", "FALSE", "FALSE", "FALSE", "FALSE", "FALSE", "FALSE", "FALSE", "FALSE", "FALSE", "FALSE", "FALSE", "FALSE", "FALSE", "TRUE", "FALSE", "FALSE", "FALSE", "FALSE", "FALSE", "FALSE", "FALSE", "FALSE", "FALSE", "FALSE", "FALSE", "FALSE", "FALSE", "FALSE", "FALSE", "FALSE" ] 
},
"accuracy": 0.93519 
}
